<?xml version="1.0"?>
<opencv_storage>
<stage8>
  <maxWeakCount>6</maxWeakCount>
  <stageThreshold>-1.6089470386505127e+00</stageThreshold>
  <weakClassifiers>
    <_>
      <internalNodes>
        0 -1 115700 -1.3810080289840698e-01</internalNodes>
      <leafValues>
        7.3913043737411499e-01 -8.6142319440841675e-01</leafValues></_>
    <_>
      <internalNodes>
        0 -1 152773 -1.1201063171029091e-02</internalNodes>
      <leafValues>
        3.6876925826072693e-01 -6.0488730669021606e-01</leafValues></_>
    <_>
      <internalNodes>
        0 -1 95065 -9.5313027501106262e-02</internalNodes>
      <leafValues>
        3.6389893293380737e-01 -5.5851471424102783e-01</leafValues></_>
    <_>
      <internalNodes>
        0 -1 37800 5.2338850218802691e-04</internalNodes>
      <leafValues>
        2.2769683599472046e-01 -8.7373036146163940e-01</leafValues></_>
    <_>
      <internalNodes>
        0 -1 99481 -2.4336776696145535e-03</internalNodes>
      <leafValues>
        -1. 1.8045081198215485e-01</leafValues></_>
    <_>
      <internalNodes>
        0 -1 9563 -9.2444178881123662e-04</internalNodes>
      <leafValues>
        -9.2851883172988892e-01 1.8674413859844208e-01</leafValues></_></weakClassifiers></stage8>
</opencv_storage>
