<?xml version="1.0"?>
<opencv_storage>
<stage6>
  <maxWeakCount>5</maxWeakCount>
  <stageThreshold>-1.6058909893035889e+00</stageThreshold>
  <weakClassifiers>
    <_>
      <internalNodes>
        0 -1 99672 -2.5932484865188599e-01</internalNodes>
      <leafValues>
        7.6923078298568726e-01 -8.7193971872329712e-01</leafValues></_>
    <_>
      <internalNodes>
        0 -1 11193 -6.9468408823013306e-02</internalNodes>
      <leafValues>
        1.3970473408699036e-01 -7.5434863567352295e-01</leafValues></_>
    <_>
      <internalNodes>
        0 -1 161827 5.4067568853497505e-03</internalNodes>
      <leafValues>
        1.0759114474058151e-01 -9.6800589561462402e-01</leafValues></_>
    <_>
      <internalNodes>
        0 -1 152044 3.4391836379654706e-05</internalNodes>
      <leafValues>
        2.3388333618640900e-01 -8.0310571193695068e-01</leafValues></_>
    <_>
      <internalNodes>
        0 -1 17982 1.3316998258233070e-02</internalNodes>
      <leafValues>
        -3.2107707858085632e-01 7.4929994344711304e-01</leafValues></_></weakClassifiers></stage6>
</opencv_storage>
