<?xml version="1.0"?>
<opencv_storage>
<stage7>
  <maxWeakCount>7</maxWeakCount>
  <stageThreshold>-2.0964162349700928e+00</stageThreshold>
  <weakClassifiers>
    <_>
      <internalNodes>
        0 -1 90319 -3.5980159044265747e-01</internalNodes>
      <leafValues>
        8.6956518888473511e-01 -8.6704117059707642e-01</leafValues></_>
    <_>
      <internalNodes>
        0 -1 84024 -1.6130577772855759e-02</internalNodes>
      <leafValues>
        7.6912486553192139e-01 -5.7150214910507202e-01</leafValues></_>
    <_>
      <internalNodes>
        0 -1 162275 -8.3338411059230566e-04</internalNodes>
      <leafValues>
        -7.2640538215637207e-01 3.4302264451980591e-01</leafValues></_>
    <_>
      <internalNodes>
        0 -1 11627 -5.7586789131164551e-02</internalNodes>
      <leafValues>
        3.9130267500877380e-01 -5.5134606361389160e-01</leafValues></_>
    <_>
      <internalNodes>
        0 -1 50134 4.2044050991535187e-02</internalNodes>
      <leafValues>
        -3.3976635336875916e-01 6.8278652429580688e-01</leafValues></_>
    <_>
      <internalNodes>
        0 -1 115341 -1.0003779083490372e-02</internalNodes>
      <leafValues>
        7.1619313955307007e-01 -2.9176953434944153e-01</leafValues></_>
    <_>
      <internalNodes>
        0 -1 80613 1.2575940927490592e-03</internalNodes>
      <leafValues>
        2.2886152565479279e-01 -9.5967763662338257e-01</leafValues></_></weakClassifiers></stage7>
</opencv_storage>
