<?xml version="1.0"?>
<opencv_storage>
<stage10>
  <maxWeakCount>6</maxWeakCount>
  <stageThreshold>-1.6350537538528442e+00</stageThreshold>
  <weakClassifiers>
    <_>
      <internalNodes>
        0 -1 90965 -3.3287078142166138e-01</internalNodes>
      <leafValues>
        6.2790697813034058e-01 -8.5247433185577393e-01</leafValues></_>
    <_>
      <internalNodes>
        0 -1 259 -5.1634274423122406e-03</internalNodes>
      <leafValues>
        7.3820836842060089e-02 -7.0533895492553711e-01</leafValues></_>
    <_>
      <internalNodes>
        0 -1 63074 -9.6996137872338295e-03</internalNodes>
      <leafValues>
        1.5671271085739136e-01 -8.2769751548767090e-01</leafValues></_>
    <_>
      <internalNodes>
        0 -1 10809 -2.7403265703469515e-03</internalNodes>
      <leafValues>
        4.0926146507263184e-01 -4.3674245476722717e-01</leafValues></_>
    <_>
      <internalNodes>
        0 -1 148275 -2.3667956702411175e-04</internalNodes>
      <leafValues>
        -9.0175211429595947e-01 1.8203704059123993e-01</leafValues></_>
    <_>
      <internalNodes>
        0 -1 142395 -8.5839230450801551e-05</internalNodes>
      <leafValues>
        2.6723030209541321e-01 -5.2062231302261353e-01</leafValues></_></weakClassifiers></stage10>
</opencv_storage>
