<?xml version="1.0"?>
<opencv_storage>
<stage16>
  <maxWeakCount>9</maxWeakCount>
  <stageThreshold>-1.6824599504470825e+00</stageThreshold>
  <weakClassifiers>
    <_>
      <internalNodes>
        0 -1 11101 1.0814610868692398e-02</internalNodes>
      <leafValues>
        -8.2299268245697021e-01 8.8888889551162720e-01</leafValues></_>
    <_>
      <internalNodes>
        0 -1 15294 -1.0436663404107094e-02</internalNodes>
      <leafValues>
        4.6030554175376892e-01 -4.9460011720657349e-01</leafValues></_>
    <_>
      <internalNodes>
        0 -1 13571 -7.1280654519796371e-03</internalNodes>
      <leafValues>
        3.6935675144195557e-01 -3.9731189608573914e-01</leafValues></_>
    <_>
      <internalNodes>
        0 -1 153670 -5.7479727547615767e-04</internalNodes>
      <leafValues>
        -8.3978629112243652e-01 1.6853100061416626e-01</leafValues></_>
    <_>
      <internalNodes>
        0 -1 151991 -6.2845889478921890e-03</internalNodes>
      <leafValues>
        5.0542664527893066e-01 -2.8631922602653503e-01</leafValues></_>
    <_>
      <internalNodes>
        0 -1 61737 8.1550958566367626e-04</internalNodes>
      <leafValues>
        2.2352293133735657e-01 -7.1752977371215820e-01</leafValues></_>
    <_>
      <internalNodes>
        0 -1 120593 -1.0096988262375817e-04</internalNodes>
      <leafValues>
        3.4839874505996704e-01 -3.8807648420333862e-01</leafValues></_>
    <_>
      <internalNodes>
        0 -1 158669 1.0551710147410631e-03</internalNodes>
      <leafValues>
        1.3547080755233765e-01 -9.7505831718444824e-01</leafValues></_>
    <_>
      <internalNodes>
        0 -1 127464 -1.4420619663724210e-05</internalNodes>
      <leafValues>
        3.6711764335632324e-01 -3.8277542591094971e-01</leafValues></_></weakClassifiers></stage16>
</opencv_storage>
