<?xml version="1.0"?>
<opencv_storage>
<stage13>
  <maxWeakCount>7</maxWeakCount>
  <stageThreshold>-1.8531663417816162e+00</stageThreshold>
  <weakClassifiers>
    <_>
      <internalNodes>
        0 -1 90257 -2.9766529798507690e-01</internalNodes>
      <leafValues>
        8.8888889551162720e-01 -8.2299268245697021e-01</leafValues></_>
    <_>
      <internalNodes>
        0 -1 100773 -8.2816947251558304e-03</internalNodes>
      <leafValues>
        2.4799525737762451e-01 -5.9194606542587280e-01</leafValues></_>
    <_>
      <internalNodes>
        0 -1 113941 5.1641510799527168e-04</internalNodes>
      <leafValues>
        1.7403574287891388e-01 -8.3360707759857178e-01</leafValues></_>
    <_>
      <internalNodes>
        0 -1 98641 -6.3496991060674191e-04</internalNodes>
      <leafValues>
        -9.8400735855102539e-01 1.1850426346063614e-01</leafValues></_>
    <_>
      <internalNodes>
        0 -1 82096 -6.9746691733598709e-03</internalNodes>
      <leafValues>
        5.0353980064392090e-01 -3.5658776760101318e-01</leafValues></_>
    <_>
      <internalNodes>
        0 -1 150283 -3.9737917482852936e-02</internalNodes>
      <leafValues>
        3.8386225700378418e-01 -4.4098082184791565e-01</leafValues></_>
    <_>
      <internalNodes>
        0 -1 58123 2.3915854399092495e-04</internalNodes>
      <leafValues>
        2.1431624889373779e-01 -8.0295491218566895e-01</leafValues></_></weakClassifiers></stage13>
</opencv_storage>
