<?xml version="1.0"?>
<opencv_storage>
<stage9>
  <maxWeakCount>5</maxWeakCount>
  <stageThreshold>-2.1125090122222900e+00</stageThreshold>
  <weakClassifiers>
    <_>
      <internalNodes>
        0 -1 71423 -5.2823030948638916e-01</internalNodes>
      <leafValues>
        -1.8867924809455872e-02 -9.2102664709091187e-01</leafValues></_>
    <_>
      <internalNodes>
        0 -1 63842 -1.6470503760501742e-03</internalNodes>
      <leafValues>
        1.4964096248149872e-02 -8.4217751026153564e-01</leafValues></_>
    <_>
      <internalNodes>
        0 -1 136269 -2.0341700874269009e-03</internalNodes>
      <leafValues>
        2.6638808846473694e-01 -7.1069425344467163e-01</leafValues></_>
    <_>
      <internalNodes>
        0 -1 127940 -4.5662242337130010e-04</internalNodes>
      <leafValues>
        -1. 1.7466628551483154e-01</leafValues></_>
    <_>
      <internalNodes>
        0 -1 103333 2.0412614103406668e-03</internalNodes>
      <leafValues>
        1.8672297894954681e-01 -8.9920312166213989e-01</leafValues></_></weakClassifiers></stage9>
</opencv_storage>
