<?xml version="1.0"?>
<opencv_storage>
<stage7>
  <maxWeakCount>6</maxWeakCount>
  <stageThreshold>-1.9117822647094727e+00</stageThreshold>
  <weakClassifiers>
    <_>
      <internalNodes>
        0 -1 71423 -5.2830755710601807e-01</internalNodes>
      <leafValues>
        6.1224490404129028e-02 -9.2133724689483643e-01</leafValues></_>
    <_>
      <internalNodes>
        0 -1 114966 -4.2012095451354980e-02</internalNodes>
      <leafValues>
        5.2813243865966797e-01 -6.7948800325393677e-01</leafValues></_>
    <_>
      <internalNodes>
        0 -1 11912 4.9812917131930590e-04</internalNodes>
      <leafValues>
        2.4773907661437988e-01 -9.2231309413909912e-01</leafValues></_>
    <_>
      <internalNodes>
        0 -1 161279 -1.3605144340544939e-04</internalNodes>
      <leafValues>
        -9.3414485454559326e-01 1.7363494634628296e-01</leafValues></_>
    <_>
      <internalNodes>
        0 -1 23195 -3.7694466300308704e-04</internalNodes>
      <leafValues>
        -8.6496305465698242e-01 2.1935892105102539e-01</leafValues></_>
    <_>
      <internalNodes>
        0 -1 131835 -2.8430763632059097e-04</internalNodes>
      <leafValues>
        -8.8948756456375122e-01 2.1836221218109131e-01</leafValues></_></weakClassifiers></stage7>
</opencv_storage>
