<?xml version="1.0"?>
<opencv_storage>
<stage3>
  <maxWeakCount>5</maxWeakCount>
  <stageThreshold>-1.8309108018875122e+00</stageThreshold>
  <weakClassifiers>
    <_>
      <internalNodes>
        0 -1 98563 -1.5075072646141052e-02</internalNodes>
      <leafValues>
        5.5555558204650879e-01 -9.1337823867797852e-01</leafValues></_>
    <_>
      <internalNodes>
        0 -1 91782 -7.8023588284850121e-03</internalNodes>
      <leafValues>
        3.1424140930175781e-01 -7.5463104248046875e-01</leafValues></_>
    <_>
      <internalNodes>
        0 -1 153343 -1.8780057871481404e-05</internalNodes>
      <leafValues>
        3.3523592352867126e-01 -7.2072350978851318e-01</leafValues></_>
    <_>
      <internalNodes>
        0 -1 133848 1.8632272258400917e-03</internalNodes>
      <leafValues>
        2.7115625143051147e-01 -9.3583619594573975e-01</leafValues></_>
    <_>
      <internalNodes>
        0 -1 1130 -3.1435592100024223e-03</internalNodes>
      <leafValues>
        -9.3320024013519287e-01 2.8666573762893677e-01</leafValues></_></weakClassifiers></stage3>
</opencv_storage>
