<?xml version="1.0"?>
<opencv_storage>
<stage16>
  <maxWeakCount>5</maxWeakCount>
  <stageThreshold>-1.7009803056716919e+00</stageThreshold>
  <weakClassifiers>
    <_>
      <internalNodes>
        0 -1 60068 2.2266533225774765e-02</internalNodes>
      <leafValues>
        -9.0028762817382813e-01 2.1739129722118378e-01</leafValues></_>
    <_>
      <internalNodes>
        0 -1 96045 -1.1705621545843314e-05</internalNodes>
      <leafValues>
        1.6583406832069159e-03 -8.1545543670654297e-01</leafValues></_>
    <_>
      <internalNodes>
        0 -1 132320 -7.4037228478118777e-04</internalNodes>
      <leafValues>
        2.1050226688385010e-01 -6.4772045612335205e-01</leafValues></_>
    <_>
      <internalNodes>
        0 -1 104826 -4.5118067646399140e-04</internalNodes>
      <leafValues>
        -9.3825823068618774e-01 1.4286580681800842e-01</leafValues></_>
    <_>
      <internalNodes>
        0 -1 118250 4.4243223965167999e-04</internalNodes>
      <leafValues>
        -2.9749640822410583e-01 6.2085717916488647e-01</leafValues></_></weakClassifiers></stage16>
</opencv_storage>
