<?xml version="1.0"?>
<opencv_storage>
<stage12>
  <maxWeakCount>5</maxWeakCount>
  <stageThreshold>-1.9440003633499146e+00</stageThreshold>
  <weakClassifiers>
    <_>
      <internalNodes>
        0 -1 130418 -6.3812792301177979e-02</internalNodes>
      <leafValues>
        -3.1958761811256409e-01 -9.3188852071762085e-01</leafValues></_>
    <_>
      <internalNodes>
        0 -1 128775 -1.5910589694976807e-01</internalNodes>
      <leafValues>
        3.5016354918479919e-01 -6.6802680492401123e-01</leafValues></_>
    <_>
      <internalNodes>
        0 -1 96444 -7.8319018939509988e-04</internalNodes>
      <leafValues>
        -1. 9.0535230934619904e-02</leafValues></_>
    <_>
      <internalNodes>
        0 -1 145895 -1.5250174328684807e-04</internalNodes>
      <leafValues>
        2.6242983341217041e-01 -6.1717033386230469e-01</leafValues></_>
    <_>
      <internalNodes>
        0 -1 128519 -2.2729346528649330e-04</internalNodes>
      <leafValues>
        -1. 1.8255008757114410e-01</leafValues></_></weakClassifiers></stage12>
</opencv_storage>
