<?xml version="1.0"?>
<opencv_storage>
<stage14>
  <maxWeakCount>5</maxWeakCount>
  <stageThreshold>-1.8309698104858398e+00</stageThreshold>
  <weakClassifiers>
    <_>
      <internalNodes>
        0 -1 40598 8.3586424589157104e-02</internalNodes>
      <leafValues>
        -9.3050193786621094e-01 1.</leafValues></_>
    <_>
      <internalNodes>
        0 -1 152798 -6.3905462622642517e-02</internalNodes>
      <leafValues>
        4.6243271231651306e-01 -7.1667057275772095e-01</leafValues></_>
    <_>
      <internalNodes>
        0 -1 104744 6.4985753851942718e-05</internalNodes>
      <leafValues>
        -7.3820102214813232e-01 2.3336991667747498e-01</leafValues></_>
    <_>
      <internalNodes>
        0 -1 154174 5.9723700396716595e-03</internalNodes>
      <leafValues>
        -5.3736245632171631e-01 3.5715872049331665e-01</leafValues></_>
    <_>
      <internalNodes>
        0 -1 73228 3.3095991238951683e-03</internalNodes>
      <leafValues>
        1.9724501669406891e-01 -1.</leafValues></_></weakClassifiers></stage14>
</opencv_storage>
