<?xml version="1.0"?>
<opencv_storage>
<stage11>
  <maxWeakCount>5</maxWeakCount>
  <stageThreshold>-1.8122743368148804e+00</stageThreshold>
  <weakClassifiers>
    <_>
      <internalNodes>
        0 -1 28599 8.1578299403190613e-02</internalNodes>
      <leafValues>
        -9.3236714601516724e-01 1.</leafValues></_>
    <_>
      <internalNodes>
        0 -1 13285 -3.2811038196086884e-02</internalNodes>
      <leafValues>
        8.1275743246078491e-01 -7.1112352609634399e-01</leafValues></_>
    <_>
      <internalNodes>
        0 -1 69506 -1.7514778301119804e-02</internalNodes>
      <leafValues>
        4.4072771072387695e-01 -6.5510362386703491e-01</leafValues></_>
    <_>
      <internalNodes>
        0 -1 81021 -1.8322214484214783e-02</internalNodes>
      <leafValues>
        2.7972739934921265e-01 -7.7292454242706299e-01</leafValues></_>
    <_>
      <internalNodes>
        0 -1 162223 1.9102099031442776e-05</internalNodes>
      <leafValues>
        2.0659255981445313e-01 -9.6208345890045166e-01</leafValues></_></weakClassifiers></stage11>
</opencv_storage>
