<?xml version="1.0"?>
<opencv_storage>
<cascade>
  <stageType>BOOST</stageType>
  <featureType>HAAR</featureType>
  <height>24</height>
  <width>24</width>
  <stageParams>
    <boostType>GAB</boostType>
    <minHitRate>9.9500000476837158e-01</minHitRate>
    <maxFalseAlarm>5.0000000000000000e-01</maxFalseAlarm>
    <weightTrimRate>9.4999998807907104e-01</weightTrimRate>
    <maxDepth>1</maxDepth>
    <maxWeakCount>100</maxWeakCount></stageParams>
  <featureParams>
    <maxCatCount>0</maxCatCount>
    <featSize>1</featSize>
    <mode>BASIC</mode></featureParams>
  <stageNum>17</stageNum>
  <stages>
    <!-- stage 0 -->
    <_>
      <maxWeakCount>4</maxWeakCount>
      <stageThreshold>-1.6762564182281494e+00</stageThreshold>
      <weakClassifiers>
        <_>
          <internalNodes>
            0 -1 53 -2.1520577371120453e-01</internalNodes>
          <leafValues>
            7.8048777580261230e-01 -9.2054265737533569e-01</leafValues></_>
        <_>
          <internalNodes>
            0 -1 11 -4.8177212476730347e-02</internalNodes>
          <leafValues>
            4.9835360050201416e-01 -8.4556877613067627e-01</leafValues></_>
        <_>
          <internalNodes>
            0 -1 55 -3.6033201962709427e-02</internalNodes>
          <leafValues>
            6.0480362176895142e-01 -6.2149947881698608e-01</leafValues></_>
        <_>
          <internalNodes>
            0 -1 2 -1.9249450415372849e-02</internalNodes>
          <leafValues>
            7.1135455369949341e-01 -4.5378020405769348e-01</leafValues></_></weakClassifiers></_>
    <!-- stage 1 -->
    <_>
      <maxWeakCount>4</maxWeakCount>
      <stageThreshold>-1.9808732271194458e+00</stageThreshold>
      <weakClassifiers>
        <_>
          <internalNodes>
            0 -1 51 -2.6216214895248413e-01</internalNodes>
          <leafValues>
            9.4029849767684937e-01 -9.0639925003051758e-01</leafValues></_>
        <_>
          <internalNodes>
            0 -1 16 -6.0920037329196930e-02</internalNodes>
          <leafValues>
            3.5752376914024353e-01 -7.7612984180450439e-01</leafValues></_>
        <_>
          <internalNodes>
            0 -1 21 -1.8440079689025879e-01</internalNodes>
          <leafValues>
            5.6100869178771973e-01 -7.1115571260452271e-01</leafValues></_>
        <_>
          <internalNodes>
            0 -1 20 -1.4996452257037163e-02</internalNodes>
          <leafValues>
            4.1281154751777649e-01 -6.5270864963531494e-01</leafValues></_></weakClassifiers></_>
    <!-- stage 2 -->
    <_>
      <maxWeakCount>3</maxWeakCount>
      <stageThreshold>-1.5541796684265137e+00</stageThreshold>
      <weakClassifiers>
        <_>
          <internalNodes>
            0 -1 50 -2.4146273732185364e-01</internalNodes>
          <leafValues>
            8.8059699535369873e-01 -9.0257877111434937e-01</leafValues></_>
        <_>
          <internalNodes>
            0 -1 9 -1.3716024160385132e-01</internalNodes>
          <leafValues>
            9.9814288318157196e-02 -7.9239124059677124e-01</leafValues></_>
        <_>
          <internalNodes>
            0 -1 58 -1.2206332030473277e-05</internalNodes>
          <leafValues>
            3.2015153765678406e-01 -7.5141513347625732e-01</leafValues></_></weakClassifiers></_>
    <!-- stage 3 -->
    <_>
      <maxWeakCount>4</maxWeakCount>
      <stageThreshold>-1.5271565914154053e+00</stageThreshold>
      <weakClassifiers>
        <_>
          <internalNodes>
            0 -1 63 -1.4863950014114380e-01</internalNodes>
          <leafValues>
            9.2857140302658081e-01 -8.8657844066619873e-01</leafValues></_>
        <_>
          <internalNodes>
            0 -1 72 5.4308911785483360e-03</internalNodes>
          <leafValues>
            -7.9470449686050415e-01 5.3722586482763290e-02</leafValues></_>
        <_>
          <internalNodes>
            0 -1 98 -3.1341644935309887e-03</internalNodes>
          <leafValues>
            -9.6169322729110718e-01 2.1469835937023163e-01</leafValues></_>
        <_>
          <internalNodes>
            0 -1 96 -1.7969720065593719e-03</internalNodes>
          <leafValues>
            -9.0899908542633057e-01 2.0643277466297150e-01</leafValues></_></weakClassifiers></_>
    <!-- stage 4 -->
    <_>
      <maxWeakCount>5</maxWeakCount>
      <stageThreshold>-1.8347482681274414e+00</stageThreshold>
      <weakClassifiers>
        <_>
          <internalNodes>
            0 -1 47 -2.4900275468826294e-01</internalNodes>
          <leafValues>
            6.6153848171234131e-01 -8.8560533523559570e-01</leafValues></_>
        <_>
          <internalNodes>
            0 -1 94 9.4202607870101929e-03</internalNodes>
          <leafValues>
            -5.5091980844736099e-02 -9.7155237197875977e-01</leafValues></_>
        <_>
          <internalNodes>
            0 -1 44 -1.5831321477890015e-01</internalNodes>
          <leafValues>
            4.2082694172859192e-01 -5.7824313640594482e-01</leafValues></_>
        <_>
          <internalNodes>
            0 -1 87 1.3883501291275024e-02</internalNodes>
          <leafValues>
            2.1509784460067749e-01 -9.5966672897338867e-01</leafValues></_>
        <_>
          <internalNodes>
            0 -1 60 1.5758533030748367e-02</internalNodes>
          <leafValues>
            -3.5521125793457031e-01 6.4087539911270142e-01</leafValues></_></weakClassifiers></_>
    <!-- stage 5 -->
    <_>
      <maxWeakCount>3</maxWeakCount>
      <stageThreshold>-1.6195329427719116e+00</stageThreshold>
      <weakClassifiers>
        <_>
          <internalNodes>
            0 -1 42 -3.3525565266609192e-01</internalNodes>
          <leafValues>
            5.4761904478073120e-01 -9.0485435724258423e-01</leafValues></_>
        <_>
          <internalNodes>
            0 -1 57 -5.7096481323242188e-02</internalNodes>
          <leafValues>
            1.9625952839851379e-01 -8.3502548933029175e-01</leafValues></_>
        <_>
          <internalNodes>
            0 -1 1 -1.7907302826642990e-03</internalNodes>
          <leafValues>
            -9.1093802452087402e-01 1.6116736829280853e-01</leafValues></_></weakClassifiers></_>
    <!-- stage 6 -->
    <_>
      <maxWeakCount>5</maxWeakCount>
      <stageThreshold>-1.6058909893035889e+00</stageThreshold>
      <weakClassifiers>
        <_>
          <internalNodes>
            0 -1 49 -2.5932484865188599e-01</internalNodes>
          <leafValues>
            7.6923078298568726e-01 -8.7193971872329712e-01</leafValues></_>
        <_>
          <internalNodes>
            0 -1 7 -6.9468408823013306e-02</internalNodes>
          <leafValues>
            1.3970473408699036e-01 -7.5434863567352295e-01</leafValues></_>
        <_>
          <internalNodes>
            0 -1 95 5.4067568853497505e-03</internalNodes>
          <leafValues>
            1.0759114474058151e-01 -9.6800589561462402e-01</leafValues></_>
        <_>
          <internalNodes>
            0 -1 85 3.4391836379654706e-05</internalNodes>
          <leafValues>
            2.3388333618640900e-01 -8.0310571193695068e-01</leafValues></_>
        <_>
          <internalNodes>
            0 -1 15 1.3316998258233070e-02</internalNodes>
          <leafValues>
            -3.2107707858085632e-01 7.4929994344711304e-01</leafValues></_></weakClassifiers></_>
    <!-- stage 7 -->
    <_>
      <maxWeakCount>7</maxWeakCount>
      <stageThreshold>-2.0964162349700928e+00</stageThreshold>
      <weakClassifiers>
        <_>
          <internalNodes>
            0 -1 38 -3.5980159044265747e-01</internalNodes>
          <leafValues>
            8.6956518888473511e-01 -8.6704117059707642e-01</leafValues></_>
        <_>
          <internalNodes>
            0 -1 34 -1.6130577772855759e-02</internalNodes>
          <leafValues>
            7.6912486553192139e-01 -5.7150214910507202e-01</leafValues></_>
        <_>
          <internalNodes>
            0 -1 99 -8.3338411059230566e-04</internalNodes>
          <leafValues>
            -7.2640538215637207e-01 3.4302264451980591e-01</leafValues></_>
        <_>
          <internalNodes>
            0 -1 8 -5.7586789131164551e-02</internalNodes>
          <leafValues>
            3.9130267500877380e-01 -5.5134606361389160e-01</leafValues></_>
        <_>
          <internalNodes>
            0 -1 23 4.2044050991535187e-02</internalNodes>
          <leafValues>
            -3.3976635336875916e-01 6.8278652429580688e-01</leafValues></_>
        <_>
          <internalNodes>
            0 -1 64 -1.0003779083490372e-02</internalNodes>
          <leafValues>
            7.1619313955307007e-01 -2.9176953434944153e-01</leafValues></_>
        <_>
          <internalNodes>
            0 -1 31 1.2575940927490592e-03</internalNodes>
          <leafValues>
            2.2886152565479279e-01 -9.5967763662338257e-01</leafValues></_></weakClassifiers></_>
    <!-- stage 8 -->
    <_>
      <maxWeakCount>6</maxWeakCount>
      <stageThreshold>-1.6089470386505127e+00</stageThreshold>
      <weakClassifiers>
        <_>
          <internalNodes>
            0 -1 65 -1.3810080289840698e-01</internalNodes>
          <leafValues>
            7.3913043737411499e-01 -8.6142319440841675e-01</leafValues></_>
        <_>
          <internalNodes>
            0 -1 86 -1.1201063171029091e-02</internalNodes>
          <leafValues>
            3.6876925826072693e-01 -6.0488730669021606e-01</leafValues></_>
        <_>
          <internalNodes>
            0 -1 45 -9.5313027501106262e-02</internalNodes>
          <leafValues>
            3.6389893293380737e-01 -5.5851471424102783e-01</leafValues></_>
        <_>
          <internalNodes>
            0 -1 19 5.2338850218802691e-04</internalNodes>
          <leafValues>
            2.2769683599472046e-01 -8.7373036146163940e-01</leafValues></_>
        <_>
          <internalNodes>
            0 -1 48 -2.4336776696145535e-03</internalNodes>
          <leafValues>
            -1. 1.8045081198215485e-01</leafValues></_>
        <_>
          <internalNodes>
            0 -1 4 -9.2444178881123662e-04</internalNodes>
          <leafValues>
            -9.2851883172988892e-01 1.8674413859844208e-01</leafValues></_></weakClassifiers></_>
    <!-- stage 9 -->
    <_>
      <maxWeakCount>8</maxWeakCount>
      <stageThreshold>-1.9829509258270264e+00</stageThreshold>
      <weakClassifiers>
        <_>
          <internalNodes>
            0 -1 41 -3.7287354469299316e-01</internalNodes>
          <leafValues>
            7.5000000000000000e-01 -8.5288637876510620e-01</leafValues></_>
        <_>
          <internalNodes>
            0 -1 56 -3.6610361188650131e-02</internalNodes>
          <leafValues>
            8.2960523664951324e-02 -8.3163332939147949e-01</leafValues></_>
        <_>
          <internalNodes>
            0 -1 81 -8.7338946759700775e-03</internalNodes>
          <leafValues>
            2.0238922536373138e-01 -6.5592020750045776e-01</leafValues></_>
        <_>
          <internalNodes>
            0 -1 68 -8.4749789675697684e-04</internalNodes>
          <leafValues>
            -9.1863411664962769e-01 1.6677385568618774e-01</leafValues></_>
        <_>
          <internalNodes>
            0 -1 32 -2.1273840218782425e-02</internalNodes>
          <leafValues>
            7.7067422866821289e-01 -2.5654649734497070e-01</leafValues></_>
        <_>
          <internalNodes>
            0 -1 54 -8.3047710359096527e-03</internalNodes>
          <leafValues>
            6.6289907693862915e-01 -2.9736661911010742e-01</leafValues></_>
        <_>
          <internalNodes>
            0 -1 74 6.5159110818058252e-04</internalNodes>
          <leafValues>
            2.6584106683731079e-01 -8.3803004026412964e-01</leafValues></_>
        <_>
          <internalNodes>
            0 -1 18 -1.1204339563846588e-01</internalNodes>
          <leafValues>
            5.7896780967712402e-01 -3.7952226400375366e-01</leafValues></_></weakClassifiers></_>
    <!-- stage 10 -->
    <_>
      <maxWeakCount>6</maxWeakCount>
      <stageThreshold>-1.6350537538528442e+00</stageThreshold>
      <weakClassifiers>
        <_>
          <internalNodes>
            0 -1 40 -3.3287078142166138e-01</internalNodes>
          <leafValues>
            6.2790697813034058e-01 -8.5247433185577393e-01</leafValues></_>
        <_>
          <internalNodes>
            0 -1 0 -5.1634274423122406e-03</internalNodes>
          <leafValues>
            7.3820836842060089e-02 -7.0533895492553711e-01</leafValues></_>
        <_>
          <internalNodes>
            0 -1 29 -9.6996137872338295e-03</internalNodes>
          <leafValues>
            1.5671271085739136e-01 -8.2769751548767090e-01</leafValues></_>
        <_>
          <internalNodes>
            0 -1 5 -2.7403265703469515e-03</internalNodes>
          <leafValues>
            4.0926146507263184e-01 -4.3674245476722717e-01</leafValues></_>
        <_>
          <internalNodes>
            0 -1 80 -2.3667956702411175e-04</internalNodes>
          <leafValues>
            -9.0175211429595947e-01 1.8203704059123993e-01</leafValues></_>
        <_>
          <internalNodes>
            0 -1 78 -8.5839230450801551e-05</internalNodes>
          <leafValues>
            2.6723030209541321e-01 -5.2062231302261353e-01</leafValues></_></weakClassifiers></_>
    <!-- stage 11 -->
    <_>
      <maxWeakCount>8</maxWeakCount>
      <stageThreshold>-1.7504798173904419e+00</stageThreshold>
      <weakClassifiers>
        <_>
          <internalNodes>
            0 -1 61 -1.3080903887748718e-01</internalNodes>
          <leafValues>
            7.5757575035095215e-01 -8.4273821115493774e-01</leafValues></_>
        <_>
          <internalNodes>
            0 -1 8 -6.1119005084037781e-02</internalNodes>
          <leafValues>
            -9.9625904113054276e-03 -7.2720813751220703e-01</leafValues></_>
        <_>
          <internalNodes>
            0 -1 75 6.3788960687816143e-04</internalNodes>
          <leafValues>
            -3.3482488989830017e-01 5.3358256816864014e-01</leafValues></_>
        <_>
          <internalNodes>
            0 -1 59 3.6828790325671434e-04</internalNodes>
          <leafValues>
            2.0565533638000488e-01 -8.9613938331604004e-01</leafValues></_>
        <_>
          <internalNodes>
            0 -1 97 1.8810319306794554e-04</internalNodes>
          <leafValues>
            1.4679999649524689e-01 -8.7256985902786255e-01</leafValues></_>
        <_>
          <internalNodes>
            0 -1 17 -1.1902308091521263e-02</internalNodes>
          <leafValues>
            4.0183478593826294e-01 -4.0225756168365479e-01</leafValues></_>
        <_>
          <internalNodes>
            0 -1 10 -5.5535323917865753e-02</internalNodes>
          <leafValues>
            6.2864261865615845e-01 -2.9353895783424377e-01</leafValues></_>
        <_>
          <internalNodes>
            0 -1 26 -1.3447589240968227e-02</internalNodes>
          <leafValues>
            5.8678376674652100e-01 -3.0645969510078430e-01</leafValues></_></weakClassifiers></_>
    <!-- stage 12 -->
    <_>
      <maxWeakCount>8</maxWeakCount>
      <stageThreshold>-1.6995006799697876e+00</stageThreshold>
      <weakClassifiers>
        <_>
          <internalNodes>
            0 -1 52 -1.4735409617424011e-01</internalNodes>
          <leafValues>
            8.9999997615814209e-01 -8.2632541656494141e-01</leafValues></_>
        <_>
          <internalNodes>
            0 -1 70 -5.1212152466177940e-03</internalNodes>
          <leafValues>
            4.9070328474044800e-02 -6.8435269594192505e-01</leafValues></_>
        <_>
          <internalNodes>
            0 -1 67 3.4876918653026223e-04</internalNodes>
          <leafValues>
            1.5287347137928009e-01 -8.7427234649658203e-01</leafValues></_>
        <_>
          <internalNodes>
            0 -1 83 -1.1221783235669136e-02</internalNodes>
          <leafValues>
            3.7613496184349060e-01 -4.4215837121009827e-01</leafValues></_>
        <_>
          <internalNodes>
            0 -1 93 -1.3323393650352955e-02</internalNodes>
          <leafValues>
            -1. 1.8487903475761414e-01</leafValues></_>
        <_>
          <internalNodes>
            0 -1 22 5.4864380508661270e-03</internalNodes>
          <leafValues>
            2.0227283239364624e-01 -7.1107047796249390e-01</leafValues></_>
        <_>
          <internalNodes>
            0 -1 35 -1.0737789853010327e-04</internalNodes>
          <leafValues>
            2.4339783191680908e-01 -6.3382250070571899e-01</leafValues></_>
        <_>
          <internalNodes>
            0 -1 3 -3.1398050487041473e-02</internalNodes>
          <leafValues>
            5.6742924451828003e-01 -2.9124003648757935e-01</leafValues></_></weakClassifiers></_>
    <!-- stage 13 -->
    <_>
      <maxWeakCount>7</maxWeakCount>
      <stageThreshold>-1.8531663417816162e+00</stageThreshold>
      <weakClassifiers>
        <_>
          <internalNodes>
            0 -1 37 -2.9766529798507690e-01</internalNodes>
          <leafValues>
            8.8888889551162720e-01 -8.2299268245697021e-01</leafValues></_>
        <_>
          <internalNodes>
            0 -1 54 -8.2816947251558304e-03</internalNodes>
          <leafValues>
            2.4799525737762451e-01 -5.9194606542587280e-01</leafValues></_>
        <_>
          <internalNodes>
            0 -1 62 5.1641510799527168e-04</internalNodes>
          <leafValues>
            1.7403574287891388e-01 -8.3360707759857178e-01</leafValues></_>
        <_>
          <internalNodes>
            0 -1 46 -6.3496991060674191e-04</internalNodes>
          <leafValues>
            -9.8400735855102539e-01 1.1850426346063614e-01</leafValues></_>
        <_>
          <internalNodes>
            0 -1 33 -6.9746691733598709e-03</internalNodes>
          <leafValues>
            5.0353980064392090e-01 -3.5658776760101318e-01</leafValues></_>
        <_>
          <internalNodes>
            0 -1 82 -3.9737917482852936e-02</internalNodes>
          <leafValues>
            3.8386225700378418e-01 -4.4098082184791565e-01</leafValues></_>
        <_>
          <internalNodes>
            0 -1 25 2.3915854399092495e-04</internalNodes>
          <leafValues>
            2.1431624889373779e-01 -8.0295491218566895e-01</leafValues></_></weakClassifiers></_>
    <!-- stage 14 -->
    <_>
      <maxWeakCount>8</maxWeakCount>
      <stageThreshold>-2.0122756958007813e+00</stageThreshold>
      <weakClassifiers>
        <_>
          <internalNodes>
            0 -1 92 -9.1226808726787567e-03</internalNodes>
          <leafValues>
            4.0540540218353271e-01 -8.3658307790756226e-01</leafValues></_>
        <_>
          <internalNodes>
            0 -1 43 1.7404494574293494e-03</internalNodes>
          <leafValues>
            -6.4386117458343506e-01 1.4221099019050598e-01</leafValues></_>
        <_>
          <internalNodes>
            0 -1 12 -9.2703206464648247e-03</internalNodes>
          <leafValues>
            2.0979376137256622e-01 -6.2065488100051880e-01</leafValues></_>
        <_>
          <internalNodes>
            0 -1 30 -1.2317608343437314e-03</internalNodes>
          <leafValues>
            -9.3428903818130493e-01 1.3838103413581848e-01</leafValues></_>
        <_>
          <internalNodes>
            0 -1 76 2.2741987777408212e-04</internalNodes>
          <leafValues>
            -5.3766077756881714e-01 2.7346223592758179e-01</leafValues></_>
        <_>
          <internalNodes>
            0 -1 71 -4.2184203863143921e-02</internalNodes>
          <leafValues>
            6.9008743762969971e-01 -2.2357088327407837e-01</leafValues></_>
        <_>
          <internalNodes>
            0 -1 79 -3.2792281359434128e-02</internalNodes>
          <leafValues>
            5.2250003814697266e-01 -3.3046594262123108e-01</leafValues></_>
        <_>
          <internalNodes>
            0 -1 77 -5.2130045369267464e-03</internalNodes>
          <leafValues>
            -8.7454628944396973e-01 2.3101705312728882e-01</leafValues></_></weakClassifiers></_>
    <!-- stage 15 -->
    <_>
      <maxWeakCount>7</maxWeakCount>
      <stageThreshold>-1.7367266416549683e+00</stageThreshold>
      <weakClassifiers>
        <_>
          <internalNodes>
            0 -1 39 6.1419658362865448e-02</internalNodes>
          <leafValues>
            -8.1983619928359985e-01 1.</leafValues></_>
        <_>
          <internalNodes>
            0 -1 28 -1.6724623739719391e-02</internalNodes>
          <leafValues>
            2.4680663645267487e-01 -5.5774843692779541e-01</leafValues></_>
        <_>
          <internalNodes>
            0 -1 89 -1.5311208553612232e-03</internalNodes>
          <leafValues>
            1.9855742156505585e-01 -7.1175330877304077e-01</leafValues></_>
        <_>
          <internalNodes>
            0 -1 90 -1.2466221116483212e-02</internalNodes>
          <leafValues>
            -9.2214792966842651e-01 1.3080312311649323e-01</leafValues></_>
        <_>
          <internalNodes>
            0 -1 24 4.9011707305908203e-02</internalNodes>
          <leafValues>
            -2.6098349690437317e-01 6.2714982032775879e-01</leafValues></_>
        <_>
          <internalNodes>
            0 -1 69 -5.4323608055710793e-03</internalNodes>
          <leafValues>
            3.3569464087486267e-01 -4.4119045138359070e-01</leafValues></_>
        <_>
          <internalNodes>
            0 -1 36 2.2583411191590130e-04</internalNodes>
          <leafValues>
            -5.9839594364166260e-01 2.8511387109756470e-01</leafValues></_></weakClassifiers></_>
    <!-- stage 16 -->
    <_>
      <maxWeakCount>9</maxWeakCount>
      <stageThreshold>-1.6824599504470825e+00</stageThreshold>
      <weakClassifiers>
        <_>
          <internalNodes>
            0 -1 6 1.0814610868692398e-02</internalNodes>
          <leafValues>
            -8.2299268245697021e-01 8.8888889551162720e-01</leafValues></_>
        <_>
          <internalNodes>
            0 -1 14 -1.0436663404107094e-02</internalNodes>
          <leafValues>
            4.6030554175376892e-01 -4.9460011720657349e-01</leafValues></_>
        <_>
          <internalNodes>
            0 -1 13 -7.1280654519796371e-03</internalNodes>
          <leafValues>
            3.6935675144195557e-01 -3.9731189608573914e-01</leafValues></_>
        <_>
          <internalNodes>
            0 -1 88 -5.7479727547615767e-04</internalNodes>
          <leafValues>
            -8.3978629112243652e-01 1.6853100061416626e-01</leafValues></_>
        <_>
          <internalNodes>
            0 -1 84 -6.2845889478921890e-03</internalNodes>
          <leafValues>
            5.0542664527893066e-01 -2.8631922602653503e-01</leafValues></_>
        <_>
          <internalNodes>
            0 -1 27 8.1550958566367626e-04</internalNodes>
          <leafValues>
            2.2352293133735657e-01 -7.1752977371215820e-01</leafValues></_>
        <_>
          <internalNodes>
            0 -1 66 -1.0096988262375817e-04</internalNodes>
          <leafValues>
            3.4839874505996704e-01 -3.8807648420333862e-01</leafValues></_>
        <_>
          <internalNodes>
            0 -1 91 1.0551710147410631e-03</internalNodes>
          <leafValues>
            1.3547080755233765e-01 -9.7505831718444824e-01</leafValues></_>
        <_>
          <internalNodes>
            0 -1 73 -1.4420619663724210e-05</internalNodes>
          <leafValues>
            3.6711764335632324e-01 -3.8277542591094971e-01</leafValues></_></weakClassifiers></_></stages>
  <features>
    <_>
      <rects>
        <_>
          0 0 8 8 -1.</_>
        <_>
          0 0 4 4 2.</_>
        <_>
          4 4 4 4 2.</_></rects>
      <tilted>0</tilted></_>
    <_>
      <rects>
        <_>
          0 0 10 1 -1.</_>
        <_>
          5 0 5 1 2.</_></rects>
      <tilted>0</tilted></_>
    <_>
      <rects>
        <_>
          0 4 6 20 -1.</_>
        <_>
          0 4 3 10 2.</_>
        <_>
          3 14 3 10 2.</_></rects>
      <tilted>0</tilted></_>
    <_>
      <rects>
        <_>
          0 8 6 9 -1.</_>
        <_>
          3 8 3 9 2.</_></rects>
      <tilted>0</tilted></_>
    <_>
      <rects>
        <_>
          0 11 4 2 -1.</_>
        <_>
          0 12 4 1 2.</_></rects>
      <tilted>0</tilted></_>
    <_>
      <rects>
        <_>
          0 13 16 2 -1.</_>
        <_>
          0 13 8 1 2.</_>
        <_>
          8 14 8 1 2.</_></rects>
      <tilted>0</tilted></_>
    <_>
      <rects>
        <_>
          0 14 3 3 -1.</_>
        <_>
          0 15 3 1 3.</_></rects>
      <tilted>0</tilted></_>
    <_>
      <rects>
        <_>
          0 14 10 9 -1.</_>
        <_>
          5 14 5 9 2.</_></rects>
      <tilted>0</tilted></_>
    <_>
      <rects>
        <_>
          0 15 10 9 -1.</_>
        <_>
          5 15 5 9 2.</_></rects>
      <tilted>0</tilted></_>
    <_>
      <rects>
        <_>
          0 15 24 7 -1.</_>
        <_>
          8 15 8 7 3.</_></rects>
      <tilted>0</tilted></_>
    <_>
      <rects>
        <_>
          0 15 23 9 -1.</_>
        <_>
          0 18 23 3 3.</_></rects>
      <tilted>0</tilted></_>
    <_>
      <rects>
        <_>
          0 16 24 2 -1.</_>
        <_>
          8 16 8 2 3.</_></rects>
      <tilted>0</tilted></_>
    <_>
      <rects>
        <_>
          0 19 8 5 -1.</_>
        <_>
          4 19 4 5 2.</_></rects>
      <tilted>0</tilted></_>
    <_>
      <rects>
        <_>
          1 0 6 8 -1.</_>
        <_>
          1 0 3 4 2.</_>
        <_>
          4 4 3 4 2.</_></rects>
      <tilted>0</tilted></_>
    <_>
      <rects>
        <_>
          1 1 20 3 -1.</_>
        <_>
          1 2 20 1 3.</_></rects>
      <tilted>0</tilted></_>
    <_>
      <rects>
        <_>
          1 4 22 3 -1.</_>
        <_>
          1 5 22 1 3.</_></rects>
      <tilted>0</tilted></_>
    <_>
      <rects>
        <_>
          1 5 6 18 -1.</_>
        <_>
          4 5 3 18 2.</_></rects>
      <tilted>0</tilted></_>
    <_>
      <rects>
        <_>
          1 14 13 6 -1.</_>
        <_>
          1 16 13 2 3.</_></rects>
      <tilted>0</tilted></_>
    <_>
      <rects>
        <_>
          2 14 21 4 -1.</_>
        <_>
          9 14 7 4 3.</_></rects>
      <tilted>0</tilted></_>
    <_>
      <rects>
        <_>
          2 21 4 3 -1.</_>
        <_>
          4 21 2 3 2.</_></rects>
      <tilted>0</tilted></_>
    <_>
      <rects>
        <_>
          3 0 8 18 -1.</_>
        <_>
          3 0 4 9 2.</_>
        <_>
          7 9 4 9 2.</_></rects>
      <tilted>0</tilted></_>
    <_>
      <rects>
        <_>
          3 0 14 18 -1.</_>
        <_>
          3 9 14 9 2.</_></rects>
      <tilted>0</tilted></_>
    <_>
      <rects>
        <_>
          3 5 3 15 -1.</_>
        <_>
          3 10 3 5 3.</_></rects>
      <tilted>0</tilted></_>
    <_>
      <rects>
        <_>
          4 0 10 9 -1.</_>
        <_>
          4 3 10 3 3.</_></rects>
      <tilted>0</tilted></_>
    <_>
      <rects>
        <_>
          4 0 12 9 -1.</_>
        <_>
          4 3 12 3 3.</_></rects>
      <tilted>0</tilted></_>
    <_>
      <rects>
        <_>
          4 13 1 3 -1.</_>
        <_>
          4 14 1 1 3.</_></rects>
      <tilted>0</tilted></_>
    <_>
      <rects>
        <_>
          5 0 4 14 -1.</_>
        <_>
          5 0 2 7 2.</_>
        <_>
          7 7 2 7 2.</_></rects>
      <tilted>0</tilted></_>
    <_>
      <rects>
        <_>
          5 1 14 2 -1.</_>
        <_>
          5 1 7 1 2.</_>
        <_>
          12 2 7 1 2.</_></rects>
      <tilted>0</tilted></_>
    <_>
      <rects>
        <_>
          5 2 10 6 -1.</_>
        <_>
          5 4 10 2 3.</_></rects>
      <tilted>0</tilted></_>
    <_>
      <rects>
        <_>
          5 3 4 12 -1.</_>
        <_>
          5 9 4 6 2.</_></rects>
      <tilted>0</tilted></_>
    <_>
      <rects>
        <_>
          5 8 1 6 -1.</_>
        <_>
          5 10 1 2 3.</_></rects>
      <tilted>0</tilted></_>
    <_>
      <rects>
        <_>
          6 21 6 2 -1.</_>
        <_>
          8 21 2 2 3.</_></rects>
      <tilted>0</tilted></_>
    <_>
      <rects>
        <_>
          7 1 9 6 -1.</_>
        <_>
          7 3 9 2 3.</_></rects>
      <tilted>0</tilted></_>
    <_>
      <rects>
        <_>
          7 1 12 6 -1.</_>
        <_>
          7 3 12 2 3.</_></rects>
      <tilted>0</tilted></_>
    <_>
      <rects>
        <_>
          7 4 11 3 -1.</_>
        <_>
          7 5 11 1 3.</_></rects>
      <tilted>0</tilted></_>
    <_>
      <rects>
        <_>
          7 15 2 2 -1.</_>
        <_>
          8 15 1 2 2.</_></rects>
      <tilted>0</tilted></_>
    <_>
      <rects>
        <_>
          7 16 6 6 -1.</_>
        <_>
          7 16 3 3 2.</_>
        <_>
          10 19 3 3 2.</_></rects>
      <tilted>0</tilted></_>
    <_>
      <rects>
        <_>
          8 0 6 18 -1.</_>
        <_>
          8 9 6 9 2.</_></rects>
      <tilted>0</tilted></_>
    <_>
      <rects>
        <_>
          8 0 7 22 -1.</_>
        <_>
          8 11 7 11 2.</_></rects>
      <tilted>0</tilted></_>
    <_>
      <rects>
        <_>
          8 1 6 6 -1.</_>
        <_>
          8 3 6 2 3.</_></rects>
      <tilted>0</tilted></_>
    <_>
      <rects>
        <_>
          8 1 6 22 -1.</_>
        <_>
          8 12 6 11 2.</_></rects>
      <tilted>0</tilted></_>
    <_>
      <rects>
        <_>
          8 1 7 22 -1.</_>
        <_>
          8 12 7 11 2.</_></rects>
      <tilted>0</tilted></_>
    <_>
      <rects>
        <_>
          8 1 9 20 -1.</_>
        <_>
          8 11 9 10 2.</_></rects>
      <tilted>0</tilted></_>
    <_>
      <rects>
        <_>
          8 5 2 6 -1.</_>
        <_>
          9 5 1 6 2.</_></rects>
      <tilted>0</tilted></_>
    <_>
      <rects>
        <_>
          8 6 12 18 -1.</_>
        <_>
          8 12 12 6 3.</_></rects>
      <tilted>0</tilted></_>
    <_>
      <rects>
        <_>
          8 8 8 15 -1.</_>
        <_>
          8 13 8 5 3.</_></rects>
      <tilted>0</tilted></_>
    <_>
      <rects>
        <_>
          8 23 4 1 -1.</_>
        <_>
          10 23 2 1 2.</_></rects>
      <tilted>0</tilted></_>
    <_>
      <rects>
        <_>
          9 0 5 22 -1.</_>
        <_>
          9 11 5 11 2.</_></rects>
      <tilted>0</tilted></_>
    <_>
      <rects>
        <_>
          9 1 9 2 -1.</_>
        <_>
          12 1 3 2 3.</_></rects>
      <tilted>0</tilted></_>
    <_>
      <rects>
        <_>
          9 1 5 22 -1.</_>
        <_>
          9 12 5 11 2.</_></rects>
      <tilted>0</tilted></_>
    <_>
      <rects>
        <_>
          9 1 6 20 -1.</_>
        <_>
          9 11 6 10 2.</_></rects>
      <tilted>0</tilted></_>
    <_>
      <rects>
        <_>
          9 1 6 22 -1.</_>
        <_>
          9 12 6 11 2.</_></rects>
      <tilted>0</tilted></_>
    <_>
      <rects>
        <_>
          9 2 3 16 -1.</_>
        <_>
          9 10 3 8 2.</_></rects>
      <tilted>0</tilted></_>
    <_>
      <rects>
        <_>
          9 2 6 20 -1.</_>
        <_>
          9 12 6 10 2.</_></rects>
      <tilted>0</tilted></_>
    <_>
      <rects>
        <_>
          9 3 4 6 -1.</_>
        <_>
          9 5 4 2 3.</_></rects>
      <tilted>0</tilted></_>
    <_>
      <rects>
        <_>
          9 11 4 12 -1.</_>
        <_>
          9 15 4 4 3.</_></rects>
      <tilted>0</tilted></_>
    <_>
      <rects>
        <_>
          9 11 7 12 -1.</_>
        <_>
          9 15 7 4 3.</_></rects>
      <tilted>0</tilted></_>
    <_>
      <rects>
        <_>
          9 11 10 12 -1.</_>
        <_>
          9 15 10 4 3.</_></rects>
      <tilted>0</tilted></_>
    <_>
      <rects>
        <_>
          9 12 1 2 -1.</_>
        <_>
          9 13 1 1 2.</_></rects>
      <tilted>0</tilted></_>
    <_>
      <rects>
        <_>
          9 21 3 3 -1.</_>
        <_>
          10 21 1 3 3.</_></rects>
      <tilted>0</tilted></_>
    <_>
      <rects>
        <_>
          10 1 1 21 -1.</_>
        <_>
          10 8 1 7 3.</_></rects>
      <tilted>0</tilted></_>
    <_>
      <rects>
        <_>
          10 1 2 22 -1.</_>
        <_>
          10 12 2 11 2.</_></rects>
      <tilted>0</tilted></_>
    <_>
      <rects>
        <_>
          10 18 3 6 -1.</_>
        <_>
          11 18 1 6 3.</_></rects>
      <tilted>0</tilted></_>
    <_>
      <rects>
        <_>
          11 1 3 22 -1.</_>
        <_>
          11 12 3 11 2.</_></rects>
      <tilted>0</tilted></_>
    <_>
      <rects>
        <_>
          11 1 6 4 -1.</_>
        <_>
          11 3 6 2 2.</_></rects>
      <tilted>0</tilted></_>
    <_>
      <rects>
        <_>
          11 2 3 18 -1.</_>
        <_>
          11 11 3 9 2.</_></rects>
      <tilted>0</tilted></_>
    <_>
      <rects>
        <_>
          11 16 4 2 -1.</_>
        <_>
          11 16 2 1 2.</_>
        <_>
          13 17 2 1 2.</_></rects>
      <tilted>0</tilted></_>
    <_>
      <rects>
        <_>
          11 20 3 4 -1.</_>
        <_>
          12 20 1 4 3.</_></rects>
      <tilted>0</tilted></_>
    <_>
      <rects>
        <_>
          11 22 4 2 -1.</_>
        <_>
          13 22 2 2 2.</_></rects>
      <tilted>0</tilted></_>
    <_>
      <rects>
        <_>
          12 3 12 4 -1.</_>
        <_>
          16 3 4 4 3.</_></rects>
      <tilted>0</tilted></_>
    <_>
      <rects>
        <_>
          12 7 12 3 -1.</_>
        <_>
          16 7 4 3 3.</_></rects>
      <tilted>0</tilted></_>
    <_>
      <rects>
        <_>
          12 12 12 9 -1.</_>
        <_>
          16 12 4 9 3.</_></rects>
      <tilted>0</tilted></_>
    <_>
      <rects>
        <_>
          12 16 1 8 -1.</_>
        <_>
          12 20 1 4 2.</_></rects>
      <tilted>0</tilted></_>
    <_>
      <rects>
        <_>
          12 17 2 2 -1.</_>
        <_>
          12 17 1 1 2.</_>
        <_>
          13 18 1 1 2.</_></rects>
      <tilted>0</tilted></_>
    <_>
      <rects>
        <_>
          12 19 3 5 -1.</_>
        <_>
          13 19 1 5 3.</_></rects>
      <tilted>0</tilted></_>
    <_>
      <rects>
        <_>
          14 11 3 1 -1.</_>
        <_>
          15 11 1 1 3.</_></rects>
      <tilted>0</tilted></_>
    <_>
      <rects>
        <_>
          14 16 2 3 -1.</_>
        <_>
          15 16 1 3 2.</_></rects>
      <tilted>0</tilted></_>
    <_>
      <rects>
        <_>
          15 0 8 1 -1.</_>
        <_>
          19 0 4 1 2.</_></rects>
      <tilted>0</tilted></_>
    <_>
      <rects>
        <_>
          15 10 1 2 -1.</_>
        <_>
          15 11 1 1 2.</_></rects>
      <tilted>0</tilted></_>
    <_>
      <rects>
        <_>
          16 1 8 21 -1.</_>
        <_>
          20 1 4 21 2.</_></rects>
      <tilted>0</tilted></_>
    <_>
      <rects>
        <_>
          16 22 3 2 -1.</_>
        <_>
          17 22 1 2 3.</_></rects>
      <tilted>0</tilted></_>
    <_>
      <rects>
        <_>
          17 0 4 12 -1.</_>
        <_>
          17 6 4 6 2.</_></rects>
      <tilted>0</tilted></_>
    <_>
      <rects>
        <_>
          17 7 7 16 -1.</_>
        <_>
          17 15 7 8 2.</_></rects>
      <tilted>0</tilted></_>
    <_>
      <rects>
        <_>
          17 10 4 12 -1.</_>
        <_>
          17 16 4 6 2.</_></rects>
      <tilted>0</tilted></_>
    <_>
      <rects>
        <_>
          18 0 6 6 -1.</_>
        <_>
          20 0 2 6 3.</_></rects>
      <tilted>0</tilted></_>
    <_>
      <rects>
        <_>
          18 0 6 1 -1.</_>
        <_>
          21 0 3 1 2.</_></rects>
      <tilted>0</tilted></_>
    <_>
      <rects>
        <_>
          18 3 6 8 -1.</_>
        <_>
          20 3 2 8 3.</_></rects>
      <tilted>0</tilted></_>
    <_>
      <rects>
        <_>
          18 5 5 15 -1.</_>
        <_>
          18 10 5 5 3.</_></rects>
      <tilted>0</tilted></_>
    <_>
      <rects>
        <_>
          18 7 6 6 -1.</_>
        <_>
          18 7 3 3 2.</_>
        <_>
          21 10 3 3 2.</_></rects>
      <tilted>0</tilted></_>
    <_>
      <rects>
        <_>
          19 0 1 12 -1.</_>
        <_>
          19 6 1 6 2.</_></rects>
      <tilted>0</tilted></_>
    <_>
      <rects>
        <_>
          19 4 5 12 -1.</_>
        <_>
          19 8 5 4 3.</_></rects>
      <tilted>0</tilted></_>
    <_>
      <rects>
        <_>
          20 7 1 6 -1.</_>
        <_>
          20 9 1 2 3.</_></rects>
      <tilted>0</tilted></_>
    <_>
      <rects>
        <_>
          21 8 3 6 -1.</_>
        <_>
          22 8 1 6 3.</_></rects>
      <tilted>0</tilted></_>
    <_>
      <rects>
        <_>
          21 8 3 10 -1.</_>
        <_>
          21 13 3 5 2.</_></rects>
      <tilted>0</tilted></_>
    <_>
      <rects>
        <_>
          22 1 2 21 -1.</_>
        <_>
          22 8 2 7 3.</_></rects>
      <tilted>0</tilted></_>
    <_>
      <rects>
        <_>
          22 10 2 12 -1.</_>
        <_>
          22 14 2 4 3.</_></rects>
      <tilted>0</tilted></_>
    <_>
      <rects>
        <_>
          23 0 1 18 -1.</_>
        <_>
          23 6 1 6 3.</_></rects>
      <tilted>0</tilted></_>
    <_>
      <rects>
        <_>
          23 4 1 16 -1.</_>
        <_>
          23 12 1 8 2.</_></rects>
      <tilted>0</tilted></_>
    <_>
      <rects>
        <_>
          23 5 1 18 -1.</_>
        <_>
          23 11 1 6 3.</_></rects>
      <tilted>0</tilted></_>
    <_>
      <rects>
        <_>
          23 11 1 12 -1.</_>
        <_>
          23 15 1 4 3.</_></rects>
      <tilted>0</tilted></_></features></cascade>
</opencv_storage>
